{"levels":[{"inputs":[0,0,0,0,0.3066107810425176],"outputs":[1,1,1,0,1,1],"biases":[-0.2974830083172275,-0.17614088173391884,0.12558813781864875,0.24928331413289037,-0.17929564445034324,-0.22362059932733078],"weights":[[0.14136141550866937,0.19427863657282587,-0.34020477476045785,0.17172679954685371,-0.2787491707448596,-0.12563611203099256],[-0.21900832207487284,-0.004964845877609855,-0.10039785519082295,-0.11413481687883442,0.23658819313942944,-0.12426163219551065],[0.00432622268411393,-0.2282177018920406,-0.008800394277367549,0.08390536897147738,-0.05415866444602474,-0.10135526656953912],[0.12256593650778413,0.12166640886035021,0.12305197203669546,0.4337260825714134,-0.24207715911251823,-0.04413285447733719],[-0.07003779967010645,-0.1529428848152973,0.45997540159874845,-0.23579436443415866,0.16123005337075114,0.02062520030745436]]},{"inputs":[1,1,1,0,1,1],"outputs":[0,1,0,0],"biases":[-0.08221292419018615,0.16324241663985434,-0.06983782542141193,0.07983120682315446],"weights":[[0.15371521953985445,0.376432077244069,-0.33716218849745,0.026743855901982506],[0.02373605322139726,0.02435798334448889,0.19490201658003853,-0.5350971051671912],[-0.11379029548965636,0.20746756301049926,-0.35772108123910656,-0.24714625629438144],[-0.08518994325411476,-0.1331290765477085,-0.06633793589287024,-0.22338797931764937],[0.23927405273810756,-0.3588313537309109,0.3993390879099885,0.2683748415074735],[-0.4084466534416169,0.11678636686425328,-0.002783066738629221,-0.2248227572335502]]}]}